{"input_weights": [[0.7720729927366252, 0.8093098277609849, 0.06393484521865456, 0.38578966044762497, 0.9468000148863871, -0.15161674710598438, 0.7966233214166096, 0.9465236630639335, 0.5480257073939203, -0.52323544801481, 0.26818032975997097, 0.2608089582054789, -0.3674291241477934, -0.19876573144432896, -0.920039675751436, -0.38157884533606334, -0.9137749456528474, 0.888076343952839, 0.08375040831018943, 0.8737182216408292], [0.18594229909777105, 0.8517585679330615, 0.7482523449529468, -0.7389772375579933, 0.7221530484654253, -0.5488955316507045, 0.9098332777652567, -0.4955882330747923, 0.012401328826866953, -0.986994735100712, -0.7125970641016484, -0.6439714601773905, -0.3844311911313838, -0.6612203617283534, 0.32275539552965893, 0.8125158086439093, 0.3032561006342591, -0.8656035478368338, 0.24408738434874477, 0.5490463431187429]], "output_weights": [[-0.9032930036112989, -0.5190341316399711], [-0.1593460480585711, 0.5808333287101666], [-0.5061040565687587, 0.7485281775391774], [0.19093513888055358, -0.031102593182056992], [-0.31237847057272505, -0.04950918972648788], [-0.10986034205671458, 0.5853218388601449], [0.62127548738026, -0.1938338459925919], [0.7746704740516033, -0.3914320261722595], [0.6478597186185726, -0.21418567417952716], [0.5388389856124027, -0.04119136722682204], [-0.9386702017504058, -0.7228673809582955], [-0.27582616995454234, -0.8149454295537817], [-0.6676050001483351, 0.287073673345436], [-0.9458541918859207, 0.41971442189904784], [-0.7918251180700082, -0.24329718802046219], [-0.47397894054865053, -0.5565696150687947], [0.05030086775873954, 0.33289297014392805], [0.2453051486163902, -0.6494770246451538], [0.8680424445010688, 0.4207155163868297], [-0.7987278841195575, 0.7874986647789635]]}