{"input_weights": [[-0.5009187085986405, -0.13042860040218576, 0.07682434657674889, 0.5581970301441466, -0.9184418275866832, 0.9143179382174267, -0.6917050420002578, 0.0065561320143032, -0.9903643409248957, -0.27312517652802376, 0.3614428628775794, 0.16034066223431384, 0.523922167800971, 0.823761947317214, -0.45473679174481046, -0.728438896345537, 0.31596777503395646, 0.7214489046878318, -0.221728585920903, -0.8617174064507009], [1.11378031213128, 0.7698560270651528, -0.5867855588753185, 0.15753045724956266, -0.47353249938546854, -0.8371477005337424, -0.3892827152048202, -0.49809159480200726, 0.45046888733203816, 0.31919221890742233, 0.29265981742131436, 0.48836198886242765, 0.9154424880890905, -0.26680599760706436, -0.03874830462243865, -0.6011056728521316, 0.0010695839659059995, 0.2931771791258608, -0.480367500893598, 0.0658092732207184]], "output_weights": [[-0.8462748016630132, 0.351374877006422], [0.08912796673889566, 0.5087788184058256], [-0.7538342165483819, 0.07309452453134961], [0.5896429426411905, 1.0122319612641393], [-0.7340459700069125, 0.056652097864697055], [0.5616854413847467, 0.7621938540805325], [-0.7742910408886104, -0.635135312310966], [-0.4478134769877076, 0.5528547141564988], [-1.004771873572955, -0.6334593188948048], [-0.8476411273790245, 0.7817374284460237], [-0.2190314016292317, 0.7054405894627976], [-0.5311258576625779, -0.7169980139687465], [-0.5437236523328832, 0.37782586969099885], [-0.1303389248960407, -0.37983992626573515], [-0.19021995186722773, -0.7044806780967816], [-0.16149425061990816, -0.5429711751473645], [0.6189274758971351, -0.7523891867431193], [-0.19009615418271553, -0.640139051871945], [0.13659166239872053, -0.9258567310246528], [0.20205510725497383, -0.08368273051789495]]}