{"input_weights": [[0.7257386208957168, 0.2775320065540736, -0.586561736215006, -0.7614628053365007, 0.10296305637190906, 0.32417738750333114, 0.16875095989522482, 0.12256750076158163, 0.4199405014112605, -0.7850075189714703, 0.17207863479739238, -0.22951916389087978, 0.7051509536913771, -0.14308015934960538, 0.0870881128472667, -0.9295622199404125, -0.179928157628783, 0.5798837597520976, 0.5292715892448343, 0.03050827668379963], [-0.25884431784789785, -0.8112731517041882, -0.1837289422560855, -0.9590581005094485, 0.87132076619134, 0.954311641917132, -0.2850329778559584, -0.5164698673430015, 0.45625233410186716, 0.7580861255481666, -0.07455989627044701, -0.5494826878798733, 0.12258335620980909, 0.256824083479825, 0.6673675844831783, -0.8017446057932931, -0.606641087882098, -0.775953802351355, -0.40654371042533577, 0.43037713581046977]], "output_weights": [[-0.2266447845316717, 0.47318428897520515], [0.8120771836922425, -0.6229706214974053], [0.32326830700075804, 0.98649971215546], [-0.15330194737494884, 0.9276087172022187], [0.9684763678154511, -0.8728383668938005], [0.43989756601248686, -0.26685051661142656], [-0.5229925596175524, 0.14074660076339995], [-0.7581931688654846, 0.6327831098648744], [-0.8496662537099198, -0.41941492612899167], [0.5246224604791683, -0.8425443189256145], [0.40281137485325735, 0.6545036130258368], [-0.13471750909959046, 0.5125805926836813], [0.3435513156525476, 0.5026294474711663], [-0.0016891514011228015, -0.25059028024920793], [0.16271441786310215, 0.8477680139679944], [0.01983307971199011, 0.5783902360578197], [-0.5671892152367068, 0.3434451863589245], [-0.8139615914693803, -0.755032108027051], [-0.09723578749813355, 0.5806290134617711], [-0.8699533263433117, 0.9224648413744361]]}