{"input_weights": [[-0.8801953275071375, -0.2472728214903854, -0.5699125139508221, -0.9503472409956006, -0.765929165527721, 0.9722282594962081, 0.8382664755671304, 0.24207733914771773, 0.19037061604047448, -0.14964483673650655, -0.3163490463844169, 0.5941596690168126, -0.3083814175525723, -0.6515757694272936, -0.7851665399665646, 0.8203032191250584, 0.2281834605645661, -0.6104735364515194, 0.35426843457942075, -0.05040792384557337], [-0.970124376805576, -0.22568639544005226, 0.5289305814186652, 0.9040333683108315, 0.8314998198706253, 0.8313445253142667, 0.30830415921686005, 0.6188932514766361, -0.4208027608244002, -0.6899052823085693, 0.2453003024867933, -0.04153188596652255, 0.467796886501595, 0.6954305486260676, -0.6537215284873944, -0.8579964682202399, 0.5805126815531677, 0.20946421431502135, -0.800304263705547, -0.9629560220416673]], "output_weights": [[0.25128582688307816, -0.9097576802437227], [0.15106826419394598, 0.9065471582723456], [-0.7312695042426389, -0.1050618493126688], [0.11558550824314741, -0.7558395193502944], [-0.2903933284389769, 0.6305374477106217], [0.12117256305334279, 0.10941673665033043], [-0.7941029373517711, 0.9111478832679004], [-0.07281128401066425, 0.17080194507673319], [0.42534627109978207, -0.49785319292251884], [-0.28810127214442655, -0.18157432945969415], [-0.928800154662756, 0.5701867543042071], [-0.1655319588389482, 0.9588717665612038], [-0.2544513074825054, -0.6239001912462624], [-0.9642060664273111, -0.08923381413091717], [-0.09072712412657494, 0.7713838808946232], [0.4732286370235631, -0.3767071148710577], [0.971234360791309, -0.9329103708828994], [-0.583707322322298, -0.41740662551633967], [0.6760857056545286, 0.9548824401032371], [0.03841045837633164, -0.7558818353670923]]}