{"input_weights": [[-0.6157198059515843, 0.6807640641455583, -0.4446137262158933, -0.4807729341806309, -0.6914638374185204, -0.6079838395684738, 0.6838289847474668, 0.3810055761182512, -0.5126207617784194, 0.5352124394031627, -0.08167427807478651, 0.39391223834950534, 0.4970039007229454, -0.5411941355307082, -0.8281152792187083, -0.0560409556989326, 0.4117492412291859, -0.6314143203907243, 0.6337277969695496, -0.3950677459956033], [0.39004222740020716, -0.40099281754266847, 0.2507953284725043, 0.39326136196700245, 0.6838545677072827, -0.020293344692517198, 0.028430565283242802, 0.9213359318153528, -0.3086928490688214, -0.818129591514805, -1.02965105369182, -0.973464707671575, 0.5022648394927299, -0.4002438847764217, -0.790802447064775, -0.3561453831511355, -0.11657502163329607, -0.4724121209308941, -0.7447125137870846, 0.929286604130521]], "output_weights": [[-0.9001026322472845, 0.7566896044303584], [0.6985232345050567, 0.37787912422344827], [-0.08787973802224584, -0.20247884701605448], [0.3561341065981763, 0.44615069632404974], [-0.9376345123507512, 0.23994202441008425], [-0.8724568483137656, 0.8659434401019241], [-0.12882697719774114, -0.9858816548834292], [0.504129093161566, -0.3122100085306645], [-0.484070023760863, -0.42725901124232935], [0.725138007153322, -0.9144547902569207], [0.545390614884228, 0.23924748976660676], [0.3672204382186514, 0.2909852949239995], [-0.6214074664798317, 0.017122942089109867], [-0.6060102955511367, 0.6660580173748423], [0.1168556729554447, -0.061150609102782895], [-0.03780830587531132, 0.39780392647972607], [-0.15328414218172476, -0.15732505212354383], [0.4508946684164748, 0.8861946555809963], [-0.2540308001515139, -0.7405756924628235], [0.10064908718434308, 0.7191926712943718]]}