{"input_weights": [[-0.3631955152480514, 0.9580897801031262, -0.6854166754530677, -0.2646671545258895, -0.3201845481620389, 0.8036760122766277, -0.6596764761930964, 0.4569248946740163, -0.4931425530987329, 0.10977117440160758, -0.7323552530957876, 0.6903530070768494, -0.14041992042208493, 0.9227131473639455, -0.060376783340901456, 0.04960260815046571, -0.5812049992676442, 0.8783635769827741, 0.09953269034281946, 0.7573726706199194], [-0.9174975712994431, -0.41751918145765565, 0.22220202666952588, 0.8269668974605713, -0.8219769163314659, 0.36256252170404907, -0.019947014225626506, -0.7975920209370247, -0.6551500908588181, 0.785840063553962, 0.3686052939137518, -0.46601538263956144, -0.5252101656745605, 0.6661735031643083, 0.7949956803625952, -0.4839581824619895, -0.8817409170959052, -0.9127593578026858, 0.6683599785671913, -0.33018713981051545]], "output_weights": [[0.6609252216686826, -0.8048071858116063], [-0.8012935282210789, 0.475367478278158], [-0.7296708035901578, -0.6377732071511908], [0.21512185599977607, 0.1613314263857571], [-0.10943330321496596, -0.08614010296791676], [0.19956649349514258, -0.6729354565850485], [-0.3580177826936501, -0.7792083542990836], [-0.1086011447580927, 0.9030152420751695], [0.4355571171355479, 0.35633878893109855], [0.0064952465875160815, 0.5103636517784949], [0.11143945105719448, -0.8376478249863912], [-0.34093955872400583, 0.8803293975106059], [-0.9156631295727446, 0.4923589016807873], [0.197697032174007, 0.9965552721139235], [-1.052813039362011, -0.8030393754306483], [0.08089855767588419, 0.5324135341298963], [0.7795933095982239, -0.08122046699720871], [1.0256689692587089, 0.38637150619160016], [-0.8850693609437459, -0.9200938101978744], [0.013000586028615342, 0.46055332757255624]]}