{"input_weights": [[-0.3182557807493406, 0.09873559188540375, -0.29259443514894884, 0.027994475556435184, 0.16061190907109438, -0.13473049782947957, -0.271341934439941, 0.6458959126710226, -0.17972192110514543, -0.3486734794714377, -0.4443712851835176, 0.46619618311447164, -0.4938478759668104, -0.5060836981897937, -0.02890513280172111, 0.16866594671991164, -0.41539538234698853, 0.1960927903983995, 0.22375147596893788, 0.23205999664232396], [-0.9453146421974098, -0.5513058552105523, -0.7009615421336893, -0.8641778039396777, -0.5884177271627116, 0.6301365040835007, 0.7781238450565684, 0.5214255434243629, 0.41667828002359186, 0.2119631392166094, -0.14424054608912243, -0.7248820770807322, 0.8088853844303254, -0.0012743130246181324, 0.37662362240432135, 0.7149284977556399, -0.5431607543508321, -0.28636257868585535, -0.15604044643724596, 0.11811999612919728], [0.9540831851085732, -0.7197209617463748, 0.6126991459211188, 0.2823444109308215, 0.6121493272519358, 0.3936931676016586, -0.9340797147842003, 0.12637197457922755, -0.7519695597168078, 0.5266168360196035, 0.7791541879732372, -0.7581875450104721, 0.8048308427362325, -0.1951585275954526, -0.2121690272537006, 0.4581609639713064, 0.937625800610834, -0.05519516168417185, 0.5870374398711838, 0.7846152588076547]], "output_weights": [[0.8884739051298667, -0.3083434516573645], [-0.516034353302501, -0.19272083314636793], [0.4293034172133506, -0.2817977848163319], [0.20384429614431868, 0.2746877559302648], [0.7626882486218188, -0.7839587301828639], [0.4031419187504389, 0.4080685948932984], [-0.48733563581036526, -0.2199263347950515], [0.08574172840501948, 1.0281561358404825], [0.40787531757197953, -0.6112524895583025], [0.25753080231650516, -0.9425096155862741], [-0.9023776398952982, -0.44478205851557906], [-0.11035857969369961, -0.30395792578514197], [-0.8988155050634564, 0.2763270914886636], [-0.09398715207547136, 0.890350092530787], [-0.7317429534552644, -0.8239578600134465], [0.700471788609648, -0.48264572796880234], [0.3773645676615226, -0.40111624454711137], [-0.7707350564591855, 0.10435152438999089], [-0.6968474678988368, 0.18062650777376046], [-0.8994206321854568, -0.9621832642207112]]}