{"input_weights": [[0.5535789733959259, 0.8401328146794997, 0.7937934360969928, -0.6816810048118357, -0.34655102422704015, 1.0017676843529433, 0.11801232912077572, -0.33170045639470563, 0.4083348679280427, 0.33410860974101353, 0.7465947260172675, 0.4828822384031632, 0.003750919934427661, 0.3347960397111386, 0.381935787166217, 0.33158875814597194, 0.2293044913656844, 0.045041520723244376, 0.6786820568321027, 0.47442214451370984], [-0.32417249614597027, 0.9113359146029212, -0.21494016279723122, 0.8354499867376516, 0.06993737278573953, -0.708684915596304, -0.8322357306606354, -0.30911161378590335, 0.34859858180724174, 0.4581038910429433, 0.581109266100887, 0.5269667752620494, -1.0055151308037402, 0.21935639633506973, 0.0353650644166008, 0.7158394496237276, 0.04878014477397186, 0.225674738826674, 0.6699815619588562, -0.5035339821180428]], "output_weights": [[0.29366495505819357, 0.22052777762677697], [-0.9732399188033463, -0.6286391777712828], [0.21686875097051422, 0.3833898977435447], [0.7410276599454529, 0.3572049064469378], [-0.8058819625503589, -0.5145930862872379], [0.9864464759276161, -0.3154382959680475], [0.6421568680630498, 0.3444598130638394], [0.8022609070026636, -0.9345342588382285], [-0.19096005552595116, -0.8221408794008501], [0.4799758370603745, -0.937115163173844], [0.251850338726929, 0.16755110079533558], [0.6005782044389282, -0.03286320538237518], [-0.6339876466576254, 0.9984621784925634], [0.3183059034853993, -0.8379766897585489], [0.20098561429961995, -0.8739888687812364], [-0.9885467357630127, -0.4075173197273641], [0.01889912876971187, -0.39194647527436405], [-0.21495434290500123, -0.6098447332710202], [-0.3379519737037063, -0.08835070670543015], [0.4738881987915273, -0.8369144722698416]]}