{"input_weights": [[0.5947104107785827, 0.4450020836711895, 0.6566387478019492, 0.35998696570466915, -0.06053550172830919, 0.5711995109626202, 0.3709441320546763, -0.1287833986509946, 0.9802421965894844, 0.6058232102650793, 0.6384895130296713, -0.8195043721057977, -0.2590924454525411, 0.7934011631948478, -0.7607172919863348, 0.8579742210577854, -0.33121014024614237, 0.09946724920951212, -0.2537282640538263, -0.07236769421572262], [0.7576391180247618, 0.37200409313658644, -0.649323090290736, -0.30801887476779316, -0.8613210600466455, -0.2837227213373972, 0.40225956184100686, 0.7893081241891539, 0.45014837936639696, -0.8828835461758304, -0.9852268561792766, -0.11667994563141944, 0.36248125346808857, -0.39111712295366274, -0.7289781252579546, -0.22902939853632873, 0.06306000545518278, -0.9333168820835114, 0.4041353292392247, -0.4235063188732281], [0.09886010417447787, -0.4849015043770661, 0.4093191447038027, 0.7460728259826133, -0.2947803500634738, -0.02650246129282708, 0.7439589269077596, 0.31714818281214563, 0.6896721994033858, 0.9803642558145935, -0.7592463588087309, 0.22234363475216248, 0.5935906311618678, 0.4824179027172777, 0.559553494192405, -0.6691915491585699, -0.18285105645163882, 0.9149494066401398, 0.9787919961894798, 0.7562468846680971], [0.39603310528346536, -0.3864682195659412, -0.48906773194793257, 0.1649924483129081, 0.4625320326703708, -0.3281611875438329, -0.845769132356268, -0.23944004708489802, 0.010858722239192976, 0.8802931390824696, 0.7118571715684342, -0.4233817217294074, -0.49943605541243163, -0.27834407505642306, -0.6206467123180561, -0.7677723550625412, -0.07449486301385692, 0.1298615379663963, 0.7976367710619049, -0.9261480448628848], [0.4656181693323038, 0.6055353898221719, -0.6730603563948772, -0.781436248242645, -0.6891671179891615, -0.7244241816177612, -0.10717718204237671, 0.9726897052578429, -0.216817361918156, -0.2470549872310157, -0.3043176273091424, -0.7331388670456882, -0.8556563786702202, -0.10957078757398697, 0.2717608473945146, -0.8522160774159145, 0.37161732983407436, 0.6095027729744036, 0.06423355987778111, 0.23924492227166635]], "output_weights": [[-0.21445982376466347, 0.03622404266708802], [0.9238880158831818, -0.5926004429652797], [-0.2659615155700033, 0.5614681366693969], [-0.365506153949113, -0.6858081915363541], [-0.8173188439747952, -0.04679281605764746], [0.3528522784374367, 0.33167169840571925], [0.17325420295383331, 0.040861849338746696], [0.30410695393488674, -0.22075023147417866], [0.5125035778302248, -0.47977355633222835], [1.0137277918313201, 0.7470095305697263], [0.1264164264851448, 0.4086359371279946], [0.5161915718093962, 0.8570059427772253], [-0.1421961499692868, 0.7566048083234889], [0.19363146933393785, 0.5180568234461274], [-0.5836830202827643, 0.09050224437005526], [-0.22741532748369592, 0.7351141687360239], [0.22791156950651562, 0.23807161895073578], [0.5007937763082029, 0.8343547204019927], [-0.5637690223389121, -0.9088754872936354], [-0.0036847399775516575, 0.38873429475219234]]}