{"input_weights": [[0.5526581084353742, 0.5575155462756448, -0.6346631868011277, -0.57031672162874, -0.2788645871841914, 0.22335781478599848, -0.15363922893422693, 0.9093422128565755, 0.2680810434280186, 0.5670044025758211, -0.53076931491748, 0.5973900239477368, -0.1632922954828846, -0.005713915419755552, 0.6346472739676793, 0.20869686398773094, 0.051743238657750615, -0.5752967859933127, 0.7304225418925306, 0.590679001644798], [-0.48468443029965025, -0.6324316960914224, 0.2493622142891535, 0.7473325821448672, -0.2884899014638486, 0.08292233426805365, -0.5635444890001952, -0.09287399498923642, 0.14019639601716471, 0.3745438626703551, -0.6708195421776465, 0.2431715456469399, 0.6247381032080506, 0.3136436232587623, 0.44950689517391973, 0.9075065966013115, -0.32969548151833133, -0.7515375351436283, 1.0031557898188879, 0.5501810322807027]], "output_weights": [[-0.033315630826378936, 0.7262250536399634], [0.3452352322869914, -0.4478900335667415], [0.4338680503651753, 0.16923494901844408], [0.1514514952442831, -0.8059407911217491], [-0.5546206144887393, -0.6362875748995467], [0.158401688699299, 0.5251757397531591], [0.9944502004963011, 0.781667564731264], [0.5936516207264831, 0.7715562921465038], [0.4260603253796825, 0.612133686507406], [0.5307474573965152, -0.7390748737973546], [0.82580476251983, 0.011208859309330852], [0.9971073585127331, -0.8103360325169996], [-0.19821428287271162, -0.42488989407585254], [0.39824910970825633, -0.23141180987073398], [0.9930179183038118, 0.2408535994545428], [0.018049588679355116, -0.9116071742959577], [-0.29991205098009843, 0.43606619193571844], [0.5443425990658574, 0.9742647946959369], [-0.9207927490625283, -0.6531000946224647], [0.6850245607651337, -0.47421796228728214]]}