{"input_weights": [[0.04158605210321314, -0.7974105390209179, -0.4359432621967247, 0.19498983949230175, -0.5606767486960885, -0.015570212619953614, -0.9576785295620623, 0.7371082359647453, -0.6349188364378864, 0.9417147460853293, 0.5723931375715716, -0.9185537821512341, 0.8726080887839712, 0.5092065244123937, -0.07622850739497714, 0.2858117636131473, 0.23694281324804556, -0.5904606100892221, 0.09227807930401398, 0.7737086709241165], [0.2700077968339838, 0.33514433421161166, -0.17587675642119152, -0.9762695517663383, 0.49410178316763403, -0.3914570953023529, 0.3781424700866413, -0.16612447460178004, -0.14742710060134773, 0.2876731082282935, 0.11013614457225936, -0.7471136349131251, 0.30657877299671094, -0.37868737964181876, -0.5696886377240723, -0.913680705468346, -0.6481111307559636, -0.9795887080239681, -0.015166261810864964, -0.6290924524989772]], "output_weights": [[-1.0014395138821266, -0.10945226328603504], [0.8491670731092, -0.6159018381479379], [0.7280389383315057, -0.3366555950223201], [0.7066730972717747, -0.07973299364549932], [-0.3055367822725123, -0.9436832440809936], [0.9985926012755433, 0.5461256463171021], [-0.6028684792325751, 0.6184470266099134], [-0.4913344362286656, 0.5330069762868626], [0.027094441681117173, 0.5858591699192571], [0.35281485932000584, 0.5749663577106274], [0.699586844154499, 0.0704321983586426], [-0.2656054268887598, -0.931355437912071], [0.6907958606992106, -0.3172022635133372], [-0.0013302735543175986, -0.10011705454172733], [-0.17354793943806018, -0.9848635305474174], [0.09080313194215335, 0.39000246972945257], [0.437183675481402, 0.11811097152696798], [0.7728862982720958, 0.8468546865131914], [0.2220718837597945, 0.7115648874853625], [0.5258563953140828, 0.10164709912984757]]}