{"input_weights": [[0.5283272549414703, 0.9079859977968012, -0.2871856919494696, -0.5873548877457414, -0.35148153157506773, 0.5495117824058079, 0.48428571002970966, -0.9861127898325031, -0.31962094656255113, 0.9862491863501575, 0.28814198124487816, -0.1294888833506695, 0.0587539879226124, -0.031125342593945556, 0.06715453752503352, 0.8031280473519935, -0.5342773172882737, -0.6193068108182508, -0.1517373110562035, -0.958225359212505], [-0.36860868321166174, -0.6174450540135218, -0.2485766487949611, -0.200060057604044, 0.5257510879091225, -0.45743832732049144, 0.2983722699624698, 0.9954252327939405, -0.7592010301693499, -0.5821380524862954, 0.625457882369858, 0.21710240168718484, -0.34142006649459444, 0.4984670823591909, 1.0114138706408684, 0.8121719338238635, -0.38291355858376935, -0.5028189163904876, -0.4982512154657303, 0.2932802800430779]], "output_weights": [[0.7987138897998566, -0.6837796746107823], [0.9958578308258852, -0.7896848038598042], [-0.39066467468365923, -0.9997123551487483], [0.04958862209853002, -0.9019188627140186], [0.22522630361367654, 0.8122297313358223], [0.40236158640665065, 0.9607533058929842], [-0.1817097182818599, 0.3974913326937825], [-0.6937297613390381, -0.5411074911107647], [-0.27914814256611903, -0.7498628410517107], [-0.6427667164381538, 0.5659077853804341], [0.27957838281924335, -0.9750915805650601], [-0.9249798001883008, -0.9202794897199186], [-0.4048100774639396, 0.41351862031179293], [-0.3340865673875981, -0.44706082072173375], [-0.7694903596164485, 0.09818975386979702], [-0.9158448902703867, 0.8566475599965173], [0.7596068251888508, -0.9982848346589202], [0.509732271808352, -0.6617465580698443], [0.549724201946783, 0.7596510776220057], [0.1310908813267945, -0.37475907300184624]]}