{"input_weights": [[0.8583969806911597, 0.7164749628818348, -0.7750627539722834, 0.26210032398256944, -0.9297639539318301, 0.7363289255751306, 0.6963572739667542, 0.6478079535734496, 0.26205355299968724, -0.46025948062212096, 0.07968872240826443, 1.1167510012451731, -0.2478559730001515, 0.9535412930446655, 0.5203451265967506, -1.1075258558535594, 0.5149734571610769, 0.8255163749142671, -0.6192003656215199, 0.054940693714803854], [0.2384406613556666, -0.7005314827807575, 1.107096282249776, -0.16550214186829076, 0.34550560714226586, -0.0557076568210617, -0.5524839577352098, 0.45062317946206837, 0.35384635686443044, -0.0075292072519306434, 0.4252428792425478, -0.5382870547182198, -0.9564836390298531, 0.7707494512340862, -0.1537118015389729, -0.2077411123868303, -0.3223340568783518, 0.13776996175440545, 0.7927700795318756, 0.5691786339900924]], "output_weights": [[-0.12092150426318901, 0.21826172011088238], [1.3067292951537197, -0.652245092870046], [-0.5775964105282965, -1.1161479897940012], [0.5281977119511947, 0.2171298693961934], [-0.9219688560288671, 0.37144900765583505], [-0.46761030169700785, -0.507203666452634], [0.939018483580303, 0.8892909809190002], [0.7288111218449282, 0.15287243586065485], [-0.31129028334369474, -0.12359404127789783], [0.0807326942324266, -0.3818350457621962], [-0.13192150535483013, -0.5062303766632525], [1.1846999322613803, -0.13725240739589706], [0.35257320186279867, -0.11761459869614604], [0.7367270593891879, -0.2737909338652695], [0.5848296119130406, 0.5832595191317681], [-0.729947403120744, 0.1449975765287346], [0.7945485705274038, 0.3364842703133704], [-0.6156990902979252, 0.0511479223766315], [-0.4378934228152564, -0.43915135563695984], [-0.08584083985817287, -0.6552625463402643]]}