{"input_weights": [[0.5806652787671773, 0.3771852788054101, 0.7705846435149747, -0.36304866060802093, 0.6098523346320567, 0.9063999481490145, -0.2562648995347842, 0.48393442134272774, -0.8262656735580174, 0.5717590789122643, 0.35492495835834437, 0.09006483148678564, 0.7371815721611267, 0.18015527832979905, -0.7799135619974531, 0.052475911092169876, -0.7096577109906652, -0.5197599017765102, -0.6071951102820199, 0.8467166074370591], [0.3920330450250536, 0.6560958870967291, 0.7769344135679567, 0.540547834703072, -0.5387813275669245, 0.6471622726651636, 0.5714098797824849, -0.5502936179485839, -0.044409664952103994, 0.26817717357583304, 0.9387961179739216, 0.32620976146900427, 0.6632911951017063, -0.741891216172204, 0.9956070646226819, -0.8004616501578805, -0.9523160177628865, 0.20899095552956623, 0.4756087988330819, -0.9383360609693797]], "output_weights": [[0.75398772856307, -0.8956685490223787], [-0.43527863997718214, -0.8060055203750216], [0.9423610751630727, 0.03928573611069208], [0.448999156977953, 0.7025353879088696], [0.16833184944897334, 1.01455820503224], [-0.738928703070178, -0.07294647937036171], [-0.7986374153651643, -0.0814232137659174], [0.26621012095796304, -0.3914430399700044], [-0.7223092763614237, -0.02565060806456124], [0.3712430208548036, 0.5894940130084994], [0.32155458797649517, -0.3679918647339146], [0.5835472822809112, 0.8397865271135687], [-0.39112345402417553, -0.7745852772599859], [0.4739341864087469, 0.05604351532085545], [-0.7916019412927306, 0.06557215290707571], [0.13360162220275276, 0.10346463840640176], [-0.5752235984801675, 0.613735796221601], [0.3585444158722797, 0.3954133269325017], [-0.3988816497036742, -0.5274573554402764], [0.9241240793821326, 0.08112901896054646]]}