{"input_weights": [[-0.9428848128829848, 0.3196335687690237, -0.567975133370999, 0.7829749275434608, -0.3672567321331884, 0.5435343596806922, -0.4679885464361982, 0.5872553944486902, 0.6949346063984927, 0.8281230048260554, -0.8359273894426968, 0.6240623139973333, -0.41115465096546333, -0.9875342464093876, 0.013870953705633468, -0.906824371680852, -0.8027007097427938, -0.5007555434734258, 0.8795424224040443, 0.4367894106776642], [0.7712103661993296, -0.5550192572851811, 0.21353697252146275, 0.13329265339235272, 0.3734577973938234, 0.6300424634342014, 0.3607889633646774, -0.8161616361541143, -0.8959455870003362, -0.9368690305057905, 0.1334764931530942, -0.5987092652650298, -0.5302114141371089, -0.8786535585150718, -0.4575272028127213, -0.4505299181053432, 0.7199619843699842, -0.5757998680768495, -0.9322861907499984, -0.6328165680931834]], "output_weights": [[0.29641124651571377, -0.047450323576439725], [0.6825234488627611, -0.3782408260159945], [0.027025341595628177, 0.0897763874089602], [0.8537108363805391, 0.10047659395318999], [-0.42150346989955634, -0.6540575183080504], [0.9743329816246691, -0.04782039010002959], [0.4706510764943125, 0.2789259213133434], [-0.2847806414859277, 0.7880451361120275], [-0.6164975151768914, 1.024658161242671], [0.24693920125729524, -0.37400807674252495], [-0.87338901650957, 0.4579903415806814], [0.9320181356272823, 0.6515351484219749], [0.4864573441161999, 0.963262565094859], [-0.5840503552702954, 0.8080594601626074], [0.2995117784478789, -0.42473456738835785], [0.6021232592234957, -0.12752774876055736], [-0.9805153170840515, -0.2917642257134713], [-0.5795233017386755, 0.528484234160049], [0.7431057086587556, -0.6226323991017889], [-0.8095065060959559, -0.24444983780664192]]}